-1.5 -3.11018 0
-1.5 -3.04734 0
-1.5 -2.98451 0
-1.5 -2.92168 0
-1.5 -2.85885 0
-1.5 -2.79602 0
-1.5 -2.73319 0
-1.5 -2.67035 0
-1.5 -2.60752 0
-1.5 -2.54469 0
-1.5 -2.48186 0
-1.5 -2.41903 0
-1.5 -2.35619 0
-1.5 -2.29336 0
-1.5 -2.23053 0
-1.5 -2.1677 0
-1.5 -2.10487 0
-1.5 -2.04204 0
-1.5 -1.9792 0
-1.5 -1.91637 0
-1.5 -1.85354 0
-1.5 -1.79071 0
-1.5 -1.72788 0
-1.5 -1.66504 0
-1.5 -1.60221 0
-1.5 -1.53938 0
-1.5 -1.47655 0
-1.5 -1.41372 0
-1.5 -1.35088 0
-1.5 -1.28805 0
-1.5 -1.22522 0
-1.5 -1.16239 0
-1.5 -1.09956 0
-1.5 -1.03673 0
-1.5 -0.973894 0
-1.5 -0.911062 0
-1.5 -0.84823 0
-1.5 -0.785398 0
-1.5 -0.722566 0
-1.5 -0.659734 0
-1.5 -0.596903 0
-1.5 -0.534071 0
-1.5 -0.471239 0
-1.5 -0.408407 0
-1.5 -0.345575 0
-1.5 -0.282743 0
-1.5 -0.219911 0
-1.5 -0.15708 0
-1.5 -0.0942478 0
-1.5 -0.0314159 0
-1.5 0.0314159 0
-1.5 0.0942478 0
-1.5 0.15708 0
-1.5 0.219911 0
-1.5 0.282743 0
-1.5 0.345575 0
-1.5 0.408407 0
-1.5 0.471239 0
-1.5 0.534071 0
-1.5 0.596903 0
-1.5 0.659734 0
-1.5 0.722566 0
-1.5 0.785398 0
-1.5 0.84823 0
-1.5 0.911062 0
-1.5 0.973894 0
-1.5 1.03673 0
-1.5 1.09956 0
-1.5 1.16239 0
-1.5 1.22522 0
-1.5 1.28805 0
-1.5 1.35088 0
-1.5 1.41372 0
-1.5 1.47655 0
-1.5 1.53938 0
-1.5 1.60221 0
-1.5 1.66504 0
-1.5 1.72788 0
-1.5 1.79071 0
-1.5 1.85354 0
-1.5 1.91637 0
-1.5 1.9792 0
-1.5 2.04204 0
-1.5 2.10487 0
-1.5 2.1677 0
-1.5 2.23053 0
-1.5 2.29336 0
-1.5 2.35619 0
-1.5 2.41903 0
-1.5 2.48186 0
-1.5 2.54469 0
-1.5 2.60752 0
-1.5 2.67035 0
-1.5 2.73319 0
-1.5 2.79602 0
-1.5 2.85885 0
-1.5 2.92168 0
-1.5 2.98451 0
-1.5 3.04734 0
-1.5 3.11018 0
-1.4 -3.11018 0
-1.4 -3.04734 0
-1.4 -2.98451 0
-1.4 -2.92168 0
-1.4 -2.85885 0
-1.4 -2.79602 0
-1.4 -2.73319 0
-1.4 -2.67035 0
-1.4 -2.60752 0
-1.4 -2.54469 0
-1.4 -2.48186 0
-1.4 -2.41903 0
-1.4 -2.35619 0
-1.4 -2.29336 0
-1.4 -2.23053 0
-1.4 -2.1677 0
-1.4 -2.10487 0
-1.4 -2.04204 0
-1.4 -1.9792 0
-1.4 -1.91637 0
-1.4 -1.85354 0
-1.4 -1.79071 0
-1.4 -1.72788 0
-1.4 -1.66504 0
-1.4 -1.60221 0
-1.4 -1.53938 0
-1.4 -1.47655 0
-1.4 -1.41372 0
-1.4 -1.35088 0
-1.4 -1.28805 0
-1.4 -1.22522 0
-1.4 -1.16239 0
-1.4 -1.09956 0
-1.4 -1.03673 0
-1.4 -0.973894 0
-1.4 -0.911062 0
-1.4 -0.84823 0
-1.4 -0.785398 0
-1.4 -0.722566 0
-1.4 -0.659734 0
-1.4 -0.596903 0
-1.4 -0.534071 0
-1.4 -0.471239 0
-1.4 -0.408407 0
-1.4 -0.345575 0
-1.4 -0.282743 0
-1.4 -0.219911 0
-1.4 -0.15708 0
-1.4 -0.0942478 0
-1.4 -0.0314159 0
-1.4 0.0314159 0
-1.4 0.0942478 0
-1.4 0.15708 0
-1.4 0.219911 0
-1.4 0.282743 0
-1.4 0.345575 0
-1.4 0.408407 0
-1.4 0.471239 0
-1.4 0.534071 0
-1.4 0.596903 0
-1.4 0.659734 0
-1.4 0.722566 0
-1.4 0.785398 0
-1.4 0.84823 0
-1.4 0.911062 0
-1.4 0.973894 0
-1.4 1.03673 0
-1.4 1.09956 0
-1.4 1.16239 0
-1.4 1.22522 0
-1.4 1.28805 0
-1.4 1.35088 0
-1.4 1.41372 0
-1.4 1.47655 0
-1.4 1.53938 0
-1.4 1.60221 0
-1.4 1.66504 0
-1.4 1.72788 0
-1.4 1.79071 0
-1.4 1.85354 0
-1.4 1.91637 0
-1.4 1.9792 0
-1.4 2.04204 0
-1.4 2.10487 0
-1.4 2.1677 0
-1.4 2.23053 0
-1.4 2.29336 0
-1.4 2.35619 0
-1.4 2.41903 0
-1.4 2.48186 0
-1.4 2.54469 0
-1.4 2.60752 0
-1.4 2.67035 0
-1.4 2.73319 0
-1.4 2.79602 0
-1.4 2.85885 0
-1.4 2.92168 0
-1.4 2.98451 0
-1.4 3.04734 0
-1.4 3.11018 0
-1.3 -3.11018 0
-1.3 -3.04734 0
-1.3 -2.98451 0
-1.3 -2.92168 0
-1.3 -2.85885 0
-1.3 -2.79602 0
-1.3 -2.73319 0
-1.3 -2.67035 0
-1.3 -2.60752 0
-1.3 -2.54469 0
-1.3 -2.48186 0
-1.3 -2.41903 0
-1.3 -2.35619 0
-1.3 -2.29336 0
-1.3 -2.23053 0
-1.3 -2.1677 0
-1.3 -2.10487 0
-1.3 -2.04204 0
-1.3 -1.9792 0
-1.3 -1.91637 0
-1.3 -1.85354 0
-1.3 -1.79071 0
-1.3 -1.72788 0
-1.3 -1.66504 0
-1.3 -1.60221 0
-1.3 -1.53938 0
-1.3 -1.47655 0
-1.3 -1.41372 0
-1.3 -1.35088 0
-1.3 -1.28805 0
-1.3 -1.22522 0
-1.3 -1.16239 0
-1.3 -1.09956 0
-1.3 -1.03673 0
-1.3 -0.973894 0
-1.3 -0.911062 0
-1.3 -0.84823 0
-1.3 -0.785398 0
-1.3 -0.722566 0
-1.3 -0.659734 0
-1.3 -0.596903 0
-1.3 -0.534071 0
-1.3 -0.471239 0
-1.3 -0.408407 0
-1.3 -0.345575 0
-1.3 -0.282743 0
-1.3 -0.219911 0
-1.3 -0.15708 0
-1.3 -0.0942478 0
-1.3 -0.0314159 0
-1.3 0.0314159 0
-1.3 0.0942478 0
-1.3 0.15708 0
-1.3 0.219911 0
-1.3 0.282743 0
-1.3 0.345575 0
-1.3 0.408407 0
-1.3 0.471239 0
-1.3 0.534071 0
-1.3 0.596903 0
-1.3 0.659734 0
-1.3 0.722566 0
-1.3 0.785398 0
-1.3 0.84823 0
-1.3 0.911062 0
-1.3 0.973894 0
-1.3 1.03673 0
-1.3 1.09956 0
-1.3 1.16239 0
-1.3 1.22522 0
-1.3 1.28805 0
-1.3 1.35088 0
-1.3 1.41372 0
-1.3 1.47655 0
-1.3 1.53938 0
-1.3 1.60221 0
-1.3 1.66504 0
-1.3 1.72788 0
-1.3 1.79071 0
-1.3 1.85354 0
-1.3 1.91637 0
-1.3 1.9792 0
-1.3 2.04204 0
-1.3 2.10487 0
-1.3 2.1677 0
-1.3 2.23053 0
-1.3 2.29336 0
-1.3 2.35619 0
-1.3 2.41903 0
-1.3 2.48186 0
-1.3 2.54469 0
-1.3 2.60752 0
-1.3 2.67035 0
-1.3 2.73319 0
-1.3 2.79602 0
-1.3 2.85885 0
-1.3 2.92168 0
-1.3 2.98451 0
-1.3 3.04734 0
-1.3 3.11018 0
-1.2 -3.11018 0
-1.2 -3.04734 0
-1.2 -2.98451 0
-1.2 -2.92168 0
-1.2 -2.85885 0
-1.2 -2.79602 0
-1.2 -2.73319 0
-1.2 -2.67035 0
-1.2 -2.60752 0
-1.2 -2.54469 0
-1.2 -2.48186 0
-1.2 -2.41903 0
-1.2 -2.35619 0
-1.2 -2.29336 0
-1.2 -2.23053 0
-1.2 -2.1677 0
-1.2 -2.10487 0
-1.2 -2.04204 0
-1.2 -1.9792 0
-1.2 -1.91637 0
-1.2 -1.85354 0
-1.2 -1.79071 0
-1.2 -1.72788 0
-1.2 -1.66504 0
-1.2 -1.60221 0
-1.2 -1.53938 0
-1.2 -1.47655 0
-1.2 -1.41372 0
-1.2 -1.35088 0
-1.2 -1.28805 0
-1.2 -1.22522 0
-1.2 -1.16239 0
-1.2 -1.09956 0
-1.2 -1.03673 0
-1.2 -0.973894 0
-1.2 -0.911062 0
-1.2 -0.84823 0
-1.2 -0.785398 0
-1.2 -0.722566 0
-1.2 -0.659734 0
-1.2 -0.596903 0
-1.2 -0.534071 0
-1.2 -0.471239 0
-1.2 -0.408407 0
-1.2 -0.345575 0
-1.2 -0.282743 0
-1.2 -0.219911 0
-1.2 -0.15708 0
-1.2 -0.0942478 0
-1.2 -0.0314159 0
-1.2 0.0314159 0
-1.2 0.0942478 0
-1.2 0.15708 0
-1.2 0.219911 0
-1.2 0.282743 0
-1.2 0.345575 0
-1.2 0.408407 0
-1.2 0.471239 0
-1.2 0.534071 0
-1.2 0.596903 0
-1.2 0.659734 0
-1.2 0.722566 0
-1.2 0.785398 0
-1.2 0.84823 0
-1.2 0.911062 0
-1.2 0.973894 0
-1.2 1.03673 0
-1.2 1.09956 0
-1.2 1.16239 0
-1.2 1.22522 0
-1.2 1.28805 0
-1.2 1.35088 0
-1.2 1.41372 0
-1.2 1.47655 0
-1.2 1.53938 0
-1.2 1.60221 0
-1.2 1.66504 0
-1.2 1.72788 0
-1.2 1.79071 0
-1.2 1.85354 0
-1.2 1.91637 0
-1.2 1.9792 0
-1.2 2.04204 0
-1.2 2.10487 0
-1.2 2.1677 0
-1.2 2.23053 0
-1.2 2.29336 0
-1.2 2.35619 0
-1.2 2.41903 0
-1.2 2.48186 0
-1.2 2.54469 0
-1.2 2.60752 0
-1.2 2.67035 0
-1.2 2.73319 0
-1.2 2.79602 0
-1.2 2.85885 0
-1.2 2.92168 0
-1.2 2.98451 0
-1.2 3.04734 0
-1.2 3.11018 0
-1.1 -3.11018 0
-1.1 -3.04734 0
-1.1 -2.98451 0
-1.1 -2.92168 0
-1.1 -2.85885 0
-1.1 -2.79602 0
-1.1 -2.73319 0
-1.1 -2.67035 0
-1.1 -2.60752 0
-1.1 -2.54469 0
-1.1 -2.48186 0
-1.1 -2.41903 0
-1.1 -2.35619 0
-1.1 -2.29336 0
-1.1 -2.23053 0
-1.1 -2.1677 0
-1.1 -2.10487 0
-1.1 -2.04204 0
-1.1 -1.9792 0
-1.1 -1.91637 0
-1.1 -1.85354 0
-1.1 -1.79071 0
-1.1 -1.72788 0
-1.1 -1.66504 0
-1.1 -1.60221 0
-1.1 -1.53938 0
-1.1 -1.47655 0
-1.1 -1.41372 0
-1.1 -1.35088 0
-1.1 -1.28805 0
-1.1 -1.22522 0
-1.1 -1.16239 0
-1.1 -1.09956 0
-1.1 -1.03673 0
-1.1 -0.973894 0
-1.1 -0.911062 0
-1.1 -0.84823 0
-1.1 -0.785398 0
-1.1 -0.722566 0
-1.1 -0.659734 0
-1.1 -0.596903 0
-1.1 -0.534071 0
-1.1 -0.471239 0
-1.1 -0.408407 0
-1.1 -0.345575 0
-1.1 -0.282743 0
-1.1 -0.219911 0
-1.1 -0.15708 0
-1.1 -0.0942478 0
-1.1 -0.0314159 0
-1.1 0.0314159 0
-1.1 0.0942478 0
-1.1 0.15708 0
-1.1 0.219911 0
-1.1 0.282743 0
-1.1 0.345575 0
-1.1 0.408407 0
-1.1 0.471239 0
-1.1 0.534071 0
-1.1 0.596903 0
-1.1 0.659734 0
-1.1 0.722566 0
-1.1 0.785398 0
-1.1 0.84823 0
-1.1 0.911062 0
-1.1 0.973894 0
-1.1 1.03673 0
-1.1 1.09956 0
-1.1 1.16239 0
-1.1 1.22522 0
-1.1 1.28805 0
-1.1 1.35088 0
-1.1 1.41372 0
-1.1 1.47655 0
-1.1 1.53938 0
-1.1 1.60221 0
-1.1 1.66504 0
-1.1 1.72788 0
-1.1 1.79071 0
-1.1 1.85354 0
-1.1 1.91637 0
-1.1 1.9792 0
-1.1 2.04204 0
-1.1 2.10487 0
-1.1 2.1677 0
-1.1 2.23053 0
-1.1 2.29336 0
-1.1 2.35619 0
-1.1 2.41903 0
-1.1 2.48186 0
-1.1 2.54469 0
-1.1 2.60752 0
-1.1 2.67035 0
-1.1 2.73319 0
-1.1 2.79602 0
-1.1 2.85885 0
-1.1 2.92168 0
-1.1 2.98451 0
-1.1 3.04734 0
-1.1 3.11018 0
-1 -3.11018 0
-1 -3.04734 0
-1 -2.98451 0
-1 -2.92168 0
-1 -2.85885 0
-1 -2.79602 0
-1 -2.73319 0
-1 -2.67035 0
-1 -2.60752 0
-1 -2.54469 0
-1 -2.48186 0
-1 -2.41903 0
-1 -2.35619 0
-1 -2.29336 0
-1 -2.23053 0
-1 -2.1677 0
-1 -2.10487 0
-1 -2.04204 0
-1 -1.9792 0
-1 -1.91637 0
-1 -1.85354 0
-1 -1.79071 0
-1 -1.72788 0
-1 -1.66504 0
-1 -1.60221 0
-1 -1.53938 0
-1 -1.47655 0
-1 -1.41372 0
-1 -1.35088 0
-1 -1.28805 0
-1 -1.22522 0
-1 -1.16239 0
-1 -1.09956 0
-1 -1.03673 0
-1 -0.973894 0
-1 -0.911062 0
-1 -0.84823 0
-1 -0.785398 0
-1 -0.722566 0
-1 -0.659734 0
-1 -0.596903 0
-1 -0.534071 0
-1 -0.471239 0
-1 -0.408407 0
-1 -0.345575 0
-1 -0.282743 0
-1 -0.219911 0
-1 -0.15708 0
-1 -0.0942478 0
-1 -0.0314159 0
-1 0.0314159 0
-1 0.0942478 0
-1 0.15708 0
-1 0.219911 0
-1 0.282743 0
-1 0.345575 0
-1 0.408407 0
-1 0.471239 0
-1 0.534071 0
-1 0.596903 0
-1 0.659734 0
-1 0.722566 0
-1 0.785398 0
-1 0.84823 0
-1 0.911062 0
-1 0.973894 0
-1 1.03673 0
-1 1.09956 0
-1 1.16239 0
-1 1.22522 0
-1 1.28805 0
-1 1.35088 0
-1 1.41372 0
-1 1.47655 0
-1 1.53938 0
-1 1.60221 0
-1 1.66504 0
-1 1.72788 0
-1 1.79071 0
-1 1.85354 0
-1 1.91637 0
-1 1.9792 0
-1 2.04204 0
-1 2.10487 0
-1 2.1677 0
-1 2.23053 0
-1 2.29336 0
-1 2.35619 0
-1 2.41903 0
-1 2.48186 0
-1 2.54469 0
-1 2.60752 0
-1 2.67035 0
-1 2.73319 0
-1 2.79602 0
-1 2.85885 0
-1 2.92168 0
-1 2.98451 0
-1 3.04734 0
-1 3.11018 0
-0.9 -3.11018 0
-0.9 -3.04734 0
-0.9 -2.98451 0
-0.9 -2.92168 0
-0.9 -2.85885 0
-0.9 -2.79602 0
-0.9 -2.73319 0
-0.9 -2.67035 0
-0.9 -2.60752 0
-0.9 -2.54469 0
-0.9 -2.48186 0
-0.9 -2.41903 0
-0.9 -2.35619 0
-0.9 -2.29336 0
-0.9 -2.23053 0
-0.9 -2.1677 0
-0.9 -2.10487 0
-0.9 -2.04204 0
-0.9 -1.9792 0
-0.9 -1.91637 0
-0.9 -1.85354 0
-0.9 -1.79071 0
-0.9 -1.72788 0
-0.9 -1.66504 0
-0.9 -1.60221 0
-0.9 -1.53938 0
-0.9 -1.47655 0
-0.9 -1.41372 0
-0.9 -1.35088 0
-0.9 -1.28805 0
-0.9 -1.22522 0
-0.9 -1.16239 0
-0.9 -1.09956 0
-0.9 -1.03673 0
-0.9 -0.973894 0
-0.9 -0.911062 0
-0.9 -0.84823 0
-0.9 -0.785398 0
-0.9 -0.722566 0
-0.9 -0.659734 0
-0.9 -0.596903 0
-0.9 -0.534071 0
-0.9 -0.471239 0
-0.9 -0.408407 0
-0.9 -0.345575 0
-0.9 -0.282743 0
-0.9 -0.219911 0
-0.9 -0.15708 0
-0.9 -0.0942478 0
-0.9 -0.0314159 0
-0.9 0.0314159 0
-0.9 0.0942478 0
-0.9 0.15708 0
-0.9 0.219911 0
-0.9 0.282743 0
-0.9 0.345575 0
-0.9 0.408407 0
-0.9 0.471239 0
-0.9 0.534071 0
-0.9 0.596903 0
-0.9 0.659734 0
-0.9 0.722566 0
-0.9 0.785398 0
-0.9 0.84823 0
-0.9 0.911062 0
-0.9 0.973894 0
-0.9 1.03673 0
-0.9 1.09956 0
-0.9 1.16239 0
-0.9 1.22522 0
-0.9 1.28805 0
-0.9 1.35088 0
-0.9 1.41372 0
-0.9 1.47655 0
-0.9 1.53938 0
-0.9 1.60221 0
-0.9 1.66504 0
-0.9 1.72788 0
-0.9 1.79071 0
-0.9 1.85354 0
-0.9 1.91637 0
-0.9 1.9792 0
-0.9 2.04204 0
-0.9 2.10487 0
-0.9 2.1677 0
-0.9 2.23053 0
-0.9 2.29336 0
-0.9 2.35619 0
-0.9 2.41903 0
-0.9 2.48186 0
-0.9 2.54469 0
-0.9 2.60752 0
-0.9 2.67035 0
-0.9 2.73319 0
-0.9 2.79602 0
-0.9 2.85885 0
-0.9 2.92168 0
-0.9 2.98451 0
-0.9 3.04734 0
-0.9 3.11018 0
-0.8 -3.11018 0
-0.8 -3.04734 0
-0.8 -2.98451 0
-0.8 -2.92168 0
-0.8 -2.85885 0
-0.8 -2.79602 0
-0.8 -2.73319 0
-0.8 -2.67035 0
-0.8 -2.60752 0
-0.8 -2.54469 0
-0.8 -2.48186 0
-0.8 -2.41903 0
-0.8 -2.35619 0
-0.8 -2.29336 0
-0.8 -2.23053 0
-0.8 -2.1677 0
-0.8 -2.10487 0
-0.8 -2.04204 0
-0.8 -1.9792 0
-0.8 -1.91637 0
-0.8 -1.85354 0
-0.8 -1.79071 0
-0.8 -1.72788 0
-0.8 -1.66504 0
-0.8 -1.60221 0
-0.8 -1.53938 0
-0.8 -1.47655 0
-0.8 -1.41372 0
-0.8 -1.35088 0
-0.8 -1.28805 0
-0.8 -1.22522 0
-0.8 -1.16239 0
-0.8 -1.09956 0
-0.8 -1.03673 0
-0.8 -0.973894 0
-0.8 -0.911062 0
-0.8 -0.84823 0
-0.8 -0.785398 0
-0.8 -0.722566 0
-0.8 -0.659734 0
-0.8 -0.596903 0
-0.8 -0.534071 0
-0.8 -0.471239 0
-0.8 -0.408407 0
-0.8 -0.345575 0
-0.8 -0.282743 0
-0.8 -0.219911 0
-0.8 -0.15708 0
-0.8 -0.0942478 0
-0.8 -0.0314159 0
-0.8 0.0314159 0
-0.8 0.0942478 0
-0.8 0.15708 0
-0.8 0.219911 0
-0.8 0.282743 0
-0.8 0.345575 0
-0.8 0.408407 0
-0.8 0.471239 0
-0.8 0.534071 0
-0.8 0.596903 0
-0.8 0.659734 0
-0.8 0.722566 0
-0.8 0.785398 0
-0.8 0.84823 0
-0.8 0.911062 0
-0.8 0.973894 0
-0.8 1.03673 0
-0.8 1.09956 0
-0.8 1.16239 0
-0.8 1.22522 0
-0.8 1.28805 0
-0.8 1.35088 0
-0.8 1.41372 0
-0.8 1.47655 0
-0.8 1.53938 0
-0.8 1.60221 0
-0.8 1.66504 0
-0.8 1.72788 0
-0.8 1.79071 0
-0.8 1.85354 0
-0.8 1.91637 0
-0.8 1.9792 0
-0.8 2.04204 0
-0.8 2.10487 0
-0.8 2.1677 0
-0.8 2.23053 0
-0.8 2.29336 0
-0.8 2.35619 0
-0.8 2.41903 0
-0.8 2.48186 0
-0.8 2.54469 0
-0.8 2.60752 0
-0.8 2.67035 0
-0.8 2.73319 0
-0.8 2.79602 0
-0.8 2.85885 0
-0.8 2.92168 0
-0.8 2.98451 0
-0.8 3.04734 0
-0.8 3.11018 0
-0.7 -3.11018 0
-0.7 -3.04734 0
-0.7 -2.98451 0
-0.7 -2.92168 0
-0.7 -2.85885 0
-0.7 -2.79602 0
-0.7 -2.73319 0
-0.7 -2.67035 0
-0.7 -2.60752 0
-0.7 -2.54469 0
-0.7 -2.48186 0
-0.7 -2.41903 0
-0.7 -2.35619 0
-0.7 -2.29336 0
-0.7 -2.23053 0
-0.7 -2.1677 0
-0.7 -2.10487 0
-0.7 -2.04204 0
-0.7 -1.9792 0
-0.7 -1.91637 0
-0.7 -1.85354 0
-0.7 -1.79071 0
-0.7 -1.72788 0
-0.7 -1.66504 0
-0.7 -1.60221 0
-0.7 -1.53938 0
-0.7 -1.47655 0
-0.7 -1.41372 0
-0.7 -1.35088 0
-0.7 -1.28805 0
-0.7 -1.22522 0
-0.7 -1.16239 0
-0.7 -1.09956 0
-0.7 -1.03673 0
-0.7 -0.973894 0
-0.7 -0.911062 0
-0.7 -0.84823 0
-0.7 -0.785398 0
-0.7 -0.722566 0
-0.7 -0.659734 0
-0.7 -0.596903 0
-0.7 -0.534071 0
-0.7 -0.471239 0
-0.7 -0.408407 0
-0.7 -0.345575 0
-0.7 -0.282743 0
-0.7 -0.219911 0
-0.7 -0.15708 0
-0.7 -0.0942478 0
-0.7 -0.0314159 0
-0.7 0.0314159 0
-0.7 0.0942478 0
-0.7 0.15708 0
-0.7 0.219911 0
-0.7 0.282743 0
-0.7 0.345575 0
-0.7 0.408407 0
-0.7 0.471239 0
-0.7 0.534071 0
-0.7 0.596903 0
-0.7 0.659734 0
-0.7 0.722566 0
-0.7 0.785398 0
-0.7 0.84823 0
-0.7 0.911062 0
-0.7 0.973894 0
-0.7 1.03673 0
-0.7 1.09956 0
-0.7 1.16239 0
-0.7 1.22522 0
-0.7 1.28805 0
-0.7 1.35088 0
-0.7 1.41372 0
-0.7 1.47655 0
-0.7 1.53938 0
-0.7 1.60221 0
-0.7 1.66504 0
-0.7 1.72788 0
-0.7 1.79071 0
-0.7 1.85354 0
-0.7 1.91637 0
-0.7 1.9792 0
-0.7 2.04204 0
-0.7 2.10487 0
-0.7 2.1677 0
-0.7 2.23053 0
-0.7 2.29336 0
-0.7 2.35619 0
-0.7 2.41903 0
-0.7 2.48186 0
-0.7 2.54469 0
-0.7 2.60752 0
-0.7 2.67035 0
-0.7 2.73319 0
-0.7 2.79602 0
-0.7 2.85885 0
-0.7 2.92168 0
-0.7 2.98451 0
-0.7 3.04734 0
-0.7 3.11018 0
-0.6 -3.11018 0
-0.6 -3.04734 0
-0.6 -2.98451 0
-0.6 -2.92168 0
-0.6 -2.85885 0
-0.6 -2.79602 0
-0.6 -2.73319 0
-0.6 -2.67035 0
-0.6 -2.60752 0
-0.6 -2.54469 0
-0.6 -2.48186 0
-0.6 -2.41903 0
-0.6 -2.35619 0
-0.6 -2.29336 0
-0.6 -2.23053 0
-0.6 -2.1677 0
-0.6 -2.10487 0
-0.6 -2.04204 0
-0.6 -1.9792 0
-0.6 -1.91637 0
-0.6 -1.85354 0
-0.6 -1.79071 0
-0.6 -1.72788 0
-0.6 -1.66504 0
-0.6 -1.60221 0
-0.6 -1.53938 0
-0.6 -1.47655 0
-0.6 -1.41372 0
-0.6 -1.35088 0
-0.6 -1.28805 0
-0.6 -1.22522 0
-0.6 -1.16239 0
-0.6 -1.09956 0
-0.6 -1.03673 0
-0.6 -0.973894 0
-0.6 -0.911062 0
-0.6 -0.84823 0
-0.6 -0.785398 0
-0.6 -0.722566 0
-0.6 -0.659734 0
-0.6 -0.596903 0
-0.6 -0.534071 0
-0.6 -0.471239 0
-0.6 -0.408407 0
-0.6 -0.345575 0
-0.6 -0.282743 0
-0.6 -0.219911 0
-0.6 -0.15708 0
-0.6 -0.0942478 0
-0.6 -0.0314159 0
-0.6 0.0314159 0
-0.6 0.0942478 0
-0.6 0.15708 0
-0.6 0.219911 0
-0.6 0.282743 0
-0.6 0.345575 0
-0.6 0.408407 0
-0.6 0.471239 0
-0.6 0.534071 0
-0.6 0.596903 0
-0.6 0.659734 0
-0.6 0.722566 0
-0.6 0.785398 0
-0.6 0.84823 0
-0.6 0.911062 0
-0.6 0.973894 0
-0.6 1.03673 0
-0.6 1.09956 0
-0.6 1.16239 0
-0.6 1.22522 0
-0.6 1.28805 0
-0.6 1.35088 0
-0.6 1.41372 0
-0.6 1.47655 0
-0.6 1.53938 0
-0.6 1.60221 0
-0.6 1.66504 0
-0.6 1.72788 0
-0.6 1.79071 0
-0.6 1.85354 0
-0.6 1.91637 0
-0.6 1.9792 0
-0.6 2.04204 0
-0.6 2.10487 0
-0.6 2.1677 0
-0.6 2.23053 0
-0.6 2.29336 0
-0.6 2.35619 0
-0.6 2.41903 0
-0.6 2.48186 0
-0.6 2.54469 0
-0.6 2.60752 0
-0.6 2.67035 0
-0.6 2.73319 0
-0.6 2.79602 0
-0.6 2.85885 0
-0.6 2.92168 0
-0.6 2.98451 0
-0.6 3.04734 0
-0.6 3.11018 0
-0.5 -3.11018 0.087742
-0.5 -3.04734 0.0875002
-0.5 -2.98451 0.0876827
-0.5 -2.92168 0.0963819
-0.5 -2.85885 0.0936125
-0.5 -2.79602 0.0881362
-0.5 -2.73319 0.0888428
-0.5 -2.67035 0.0897568
-0.5 -2.60752 0.0828834
-0.5 -2.54469 0.0775991
-0.5 -2.48186 0.0766231
-0.5 -2.41903 0.0810669
-0.5 -2.35619 0.0850011
-0.5 -2.29336 0.0805421
-0.5 -2.23053 0.0710619
-0.5 -2.1677 0.0827099
-0.5 -2.10487 0.0818852
-0.5 -2.04204 0.0830991
-0.5 -1.9792 0.0816195
-0.5 -1.91637 0.0823613
-0.5 -1.85354 0.0866577
-0.5 -1.79071 0.0846849
-0.5 -1.72788 0.0780365
-0.5 -1.66504 0.0807589
-0.5 -1.60221 0.0751238
-0.5 -1.53938 0.0801019
-0.5 -1.47655 0.0835331
-0.5 -1.41372 0.0855986
-0.5 -1.35088 0.0897107
-0.5 -1.28805 0.0878729
-0.5 -1.22522 0.0814741
-0.5 -1.16239 0.0837021
-0.5 -1.09956 0.0829699
-0.5 -1.03673 0.0816059
-0.5 -0.973894 0.0750785
-0.5 -0.911062 0.0715726
-0.5 -0.84823 0.0747972
-0.5 -0.785398 0.08139
-0.5 -0.722566 0.0742057
-0.5 -0.659734 0.0677063
-0.5 -0.596903 0.0695745
-0.5 -0.534071 0.0705806
-0.5 -0.471239 0.0682071
-0.5 -0.408407 0.0697363
-0.5 -0.345575 0.0645398
-0.5 -0.282743 0.0762046
-0.5 -0.219911 0.0798837
-0.5 -0.15708 0.0733513
-0.5 -0.0942478 0.0749202
-0.5 -0.0314159 0.0775534
-0.5 0.0314159 0.0802008
-0.5 0.0942478 0.0843911
-0.5 0.15708 0.083811
-0.5 0.219911 0.0891666
-0.5 0.282743 0.0855855
-0.5 0.345575 0.0810898
-0.5 0.408407 0.0865373
-0.5 0.471239 0.0896367
-0.5 0.534071 0.0879896
-0.5 0.596903 0.0859179
-0.5 0.659734 0.0862167
-0.5 0.722566 0.091997
-0.5 0.785398 0.0936327
-0.5 0.84823 0.0892761
-0.5 0.911062 0.0809622
-0.5 0.973894 0.0840448
-0.5 1.03673 0.08525
-0.5 1.09956 0.0865048
-0.5 1.16239 0.0862017
-0.5 1.22522 0.0873668
-0.5 1.28805 0.0915003
-0.5 1.35088 0.0906338
-0.5 1.41372 0.0843082
-0.5 1.47655 0.0884306
-0.5 1.53938 0.0819771
-0.5 1.60221 0.0828864
-0.5 1.66504 0.084128
-0.5 1.72788 0.0856028
-0.5 1.79071 0.0892606
-0.5 1.85354 0.0892638
-0.5 1.91637 0.0817091
-0.5 1.9792 0.0855221
-0.5 2.04204 0.086769
-0.5 2.10487 0.0887542
-0.5 2.1677 0.0792332
-0.5 2.23053 0.0822465
-0.5 2.29336 0.0844054
-0.5 2.35619 0.087731
-0.5 2.41903 0.0774065
-0.5 2.48186 0.0690829
-0.5 2.54469 0.0708784
-0.5 2.60752 0.0712928
-0.5 2.67035 0.0703564
-0.5 2.73319 0.071434
-0.5 2.79602 0.0673855
-0.5 2.85885 0.0860963
-0.5 2.92168 0.0871922
-0.5 2.98451 0.0846882
-0.5 3.04734 0.0874088
-0.5 3.11018 0.0877288
-0.4 -3.11018 0.173559
-0.4 -3.04734 0.172594
-0.4 -2.98451 0.173326
-0.4 -2.92168 0.189949
-0.4 -2.85885 0.181347
-0.4 -2.79602 0.169021
-0.4 -2.73319 0.169643
-0.4 -2.67035 0.171982
-0.4 -2.60752 0.160467
-0.4 -2.54469 0.151976
-0.4 -2.48186 0.150782
-0.4 -2.41903 0.159053
-0.4 -2.35619 0.167397
-0.4 -2.29336 0.158073
-0.4 -2.23053 0.139313
-0.4 -2.1677 0.161402
-0.4 -2.10487 0.15964
-0.4 -2.04204 0.162017
-0.4 -1.9792 0.159472
-0.4 -1.91637 0.161574
-0.4 -1.85354 0.169867
-0.4 -1.79071 0.165828
-0.4 -1.72788 0.153422
-0.4 -1.66504 0.157773
-0.4 -1.60221 0.147087
-0.4 -1.53938 0.157116
-0.4 -1.47655 0.163955
-0.4 -1.41372 0.168387
-0.4 -1.35088 0.17692
-0.4 -1.28805 0.173272
-0.4 -1.22522 0.160724
-0.4 -1.16239 0.164244
-0.4 -1.09956 0.162739
-0.4 -1.03673 0.15943
-0.4 -0.973894 0.146866
-0.4 -0.911062 0.139407
-0.4 -0.84823 0.144289
-0.4 -0.785398 0.157152
-0.4 -0.722566 0.142756
-0.4 -0.659734 0.128412
-0.4 -0.596903 0.131623
-0.4 -0.534071 0.134005
-0.4 -0.471239 0.129886
-0.4 -0.408407 0.132603
-0.4 -0.345575 0.123388
-0.4 -0.282743 0.147335
-0.4 -0.219911 0.155802
-0.4 -0.15708 0.143978
-0.4 -0.0942478 0.14675
-0.4 -0.0314159 0.152811
-0.4 0.0314159 0.158466
-0.4 0.0942478 0.166535
-0.4 0.15708 0.16606
-0.4 0.219911 0.176888
-0.4 0.282743 0.170014
-0.4 0.345575 0.160864
-0.4 0.408407 0.171686
-0.4 0.471239 0.177758
-0.4 0.534071 0.174513
-0.4 0.596903 0.170111
-0.4 0.659734 0.171004
-0.4 0.722566 0.182438
-0.4 0.785398 0.18623
-0.4 0.84823 0.177124
-0.4 0.911062 0.160956
-0.4 0.973894 0.166453
-0.4 1.03673 0.169413
-0.4 1.09956 0.171401
-0.4 1.16239 0.170726
-0.4 1.22522 0.173483
-0.4 1.28805 0.18216
-0.4 1.35088 0.179941
-0.4 1.41372 0.167543
-0.4 1.47655 0.174633
-0.4 1.53938 0.162932
-0.4 1.60221 0.163714
-0.4 1.66504 0.165542
-0.4 1.72788 0.168387
-0.4 1.79071 0.17574
-0.4 1.85354 0.176202
-0.4 1.91637 0.160492
-0.4 1.9792 0.166995
-0.4 2.04204 0.169182
-0.4 2.10487 0.172977
-0.4 2.1677 0.154164
-0.4 2.23053 0.161207
-0.4 2.29336 0.165091
-0.4 2.35619 0.171973
-0.4 2.41903 0.15154
-0.4 2.48186 0.135243
-0.4 2.54469 0.138076
-0.4 2.60752 0.13931
-0.4 2.67035 0.137778
-0.4 2.73319 0.140998
-0.4 2.79602 0.133474
-0.4 2.85885 0.170224
-0.4 2.92168 0.172211
-0.4 2.98451 0.16652
-0.4 3.04734 0.172458
-0.4 3.11018 0.172992
-0.3 -3.11018 0.170613
-0.3 -3.04734 0.169514
-0.3 -2.98451 0.170471
-0.3 -2.92168 0.186052
-0.3 -2.85885 0.173871
-0.3 -2.79602 0.159923
-0.3 -2.73319 0.159408
-0.3 -2.67035 0.16293
-0.3 -2.60752 0.153592
-0.3 -2.54469 0.147136
-0.3 -2.48186 0.147281
-0.3 -2.41903 0.154502
-0.3 -2.35619 0.163212
-0.3 -2.29336 0.15357
-0.3 -2.23053 0.135505
-0.3 -2.1677 0.155169
-0.3 -2.10487 0.153539
-0.3 -2.04204 0.156156
-0.3 -1.9792 0.153654
-0.3 -1.91637 0.157171
-0.3 -1.85354 0.165095
-0.3 -1.79071 0.160969
-0.3 -1.72788 0.149579
-0.3 -1.66504 0.153161
-0.3 -1.60221 0.142734
-0.3 -1.53938 0.152873
-0.3 -1.47655 0.159792
-0.3 -1.41372 0.164432
-0.3 -1.35088 0.173486
-0.3 -1.28805 0.16979
-0.3 -1.22522 0.158018
-0.3 -1.16239 0.159855
-0.3 -1.09956 0.158798
-0.3 -1.03673 0.155089
-0.3 -0.973894 0.142933
-0.3 -0.911062 0.135157
-0.3 -0.84823 0.138174
-0.3 -0.785398 0.148794
-0.3 -0.722566 0.134414
-0.3 -0.659734 0.119278
-0.3 -0.596903 0.121809
-0.3 -0.534071 0.124722
-0.3 -0.471239 0.121611
-0.3 -0.408407 0.123289
-0.3 -0.345575 0.115301
-0.3 -0.282743 0.140034
-0.3 -0.219911 0.149973
-0.3 -0.15708 0.1399
-0.3 -0.0942478 0.142249
-0.3 -0.0314159 0.148417
-0.3 0.0314159 0.154639
-0.3 0.0942478 0.162537
-0.3 0.15708 0.163076
-0.3 0.219911 0.174155
-0.3 0.282743 0.168019
-0.3 0.345575 0.158959
-0.3 0.408407 0.169453
-0.3 0.471239 0.175097
-0.3 0.534071 0.171897
-0.3 0.596903 0.167348
-0.3 0.659734 0.168652
-0.3 0.722566 0.179559
-0.3 0.785398 0.184564
-0.3 0.84823 0.175111
-0.3 0.911062 0.158607
-0.3 0.973894 0.163827
-0.3 1.03673 0.166559
-0.3 1.09956 0.168029
-0.3 1.16239 0.16772
-0.3 1.22522 0.170879
-0.3 1.28805 0.180632
-0.3 1.35088 0.177982
-0.3 1.41372 0.165414
-0.3 1.47655 0.171327
-0.3 1.53938 0.161074
-0.3 1.60221 0.160371
-0.3 1.66504 0.161582
-0.3 1.72788 0.164262
-0.3 1.79071 0.171551
-0.3 1.85354 0.172831
-0.3 1.91637 0.156326
-0.3 1.9792 0.161565
-0.3 2.04204 0.163609
-0.3 2.10487 0.166969
-0.3 2.1677 0.148944
-0.3 2.23053 0.156607
-0.3 2.29336 0.159343
-0.3 2.35619 0.166832
-0.3 2.41903 0.146797
-0.3 2.48186 0.131058
-0.3 2.54469 0.13373
-0.3 2.60752 0.135151
-0.3 2.67035 0.134302
-0.3 2.73319 0.138602
-0.3 2.79602 0.131834
-0.3 2.85885 0.167717
-0.3 2.92168 0.169143
-0.3 2.98451 0.162399
-0.3 3.04734 0.168778
-0.3 3.11018 0.169222
-0.2 -3.11018 0.166978
-0.2 -3.04734 0.16632
-0.2 -2.98451 0.167631
-0.2 -2.92168 0.181746
-0.2 -2.85885 0.167668
-0.2 -2.79602 0.152588
-0.2 -2.73319 0.151378
-0.2 -2.67035 0.156068
-0.2 -2.60752 0.148553
-0.2 -2.54469 0.142817
-0.2 -2.48186 0.143086
-0.2 -2.41903 0.149773
-0.2 -2.35619 0.15801
-0.2 -2.29336 0.148521
-0.2 -2.23053 0.131322
-0.2 -2.1677 0.148857
-0.2 -2.10487 0.147852
-0.2 -2.04204 0.150634
-0.2 -1.9792 0.14766
-0.2 -1.91637 0.152617
-0.2 -1.85354 0.160627
-0.2 -1.79071 0.156555
-0.2 -1.72788 0.145804
-0.2 -1.66504 0.148888
-0.2 -1.60221 0.13865
-0.2 -1.53938 0.148604
-0.2 -1.47655 0.155923
-0.2 -1.41372 0.160249
-0.2 -1.35088 0.170104
-0.2 -1.28805 0.16661
-0.2 -1.22522 0.155582
-0.2 -1.16239 0.155995
-0.2 -1.09956 0.155348
-0.2 -1.03673 0.151415
-0.2 -0.973894 0.139645
-0.2 -0.911062 0.130902
-0.2 -0.84823 0.132143
-0.2 -0.785398 0.140834
-0.2 -0.722566 0.126387
-0.2 -0.659734 0.111527
-0.2 -0.596903 0.113152
-0.2 -0.534071 0.116259
-0.2 -0.471239 0.113845
-0.2 -0.408407 0.114612
-0.2 -0.345575 0.107919
-0.2 -0.282743 0.132675
-0.2 -0.219911 0.143802
-0.2 -0.15708 0.13488
-0.2 -0.0942478 0.13733
-0.2 -0.0314159 0.144364
-0.2 0.0314159 0.151423
-0.2 0.0942478 0.159564
-0.2 0.15708 0.16012
-0.2 0.219911 0.170953
-0.2 0.282743 0.165941
-0.2 0.345575 0.15659
-0.2 0.408407 0.166493
-0.2 0.471239 0.17202
-0.2 0.534071 0.168846
-0.2 0.596903 0.164419
-0.2 0.659734 0.166146
-0.2 0.722566 0.176623
-0.2 0.785398 0.182694
-0.2 0.84823 0.173159
-0.2 0.911062 0.155827
-0.2 0.973894 0.160625
-0.2 1.03673 0.163115
-0.2 1.09956 0.164198
-0.2 1.16239 0.163975
-0.2 1.22522 0.167526
-0.2 1.28805 0.177824
-0.2 1.35088 0.174856
-0.2 1.41372 0.16214
-0.2 1.47655 0.167151
-0.2 1.53938 0.158183
-0.2 1.60221 0.157261
-0.2 1.66504 0.158007
-0.2 1.72788 0.160297
-0.2 1.79071 0.167496
-0.2 1.85354 0.169156
-0.2 1.91637 0.15229
-0.2 1.9792 0.156246
-0.2 2.04204 0.158047
-0.2 2.10487 0.161365
-0.2 2.1677 0.144122
-0.2 2.23053 0.151642
-0.2 2.29336 0.153373
-0.2 2.35619 0.161282
-0.2 2.41903 0.141769
-0.2 2.48186 0.126545
-0.2 2.54469 0.129516
-0.2 2.60752 0.130786
-0.2 2.67035 0.130373
-0.2 2.73319 0.135351
-0.2 2.79602 0.129088
-0.2 2.85885 0.164232
-0.2 2.92168 0.166119
-0.2 2.98451 0.158409
-0.2 3.04734 0.164806
-0.2 3.11018 0.16519
-0.1 -3.11018 0.163017
-0.1 -3.04734 0.163073
-0.1 -2.98451 0.164729
-0.1 -2.92168 0.177814
-0.1 -2.85885 0.163428
-0.1 -2.79602 0.147578
-0.1 -2.73319 0.1457
-0.1 -2.67035 0.151071
-0.1 -2.60752 0.144625
-0.1 -2.54469 0.139028
-0.1 -2.48186 0.138546
-0.1 -2.41903 0.145312
-0.1 -2.35619 0.152689
-0.1 -2.29336 0.143329
-0.1 -2.23053 0.127305
-0.1 -2.1677 0.143659
-0.1 -2.10487 0.143139
-0.1 -2.04204 0.146371
-0.1 -1.9792 0.142936
-0.1 -1.91637 0.148937
-0.1 -1.85354 0.156624
-0.1 -1.79071 0.152409
-0.1 -1.72788 0.14244
-0.1 -1.66504 0.145086
-0.1 -1.60221 0.13496
-0.1 -1.53938 0.144755
-0.1 -1.47655 0.152172
-0.1 -1.41372 0.156397
-0.1 -1.35088 0.166866
-0.1 -1.28805 0.16436
-0.1 -1.22522 0.152766
-0.1 -1.16239 0.151898
-0.1 -1.09956 0.151924
-0.1 -1.03673 0.147974
-0.1 -0.973894 0.136641
-0.1 -0.911062 0.126549
-0.1 -0.84823 0.126728
-0.1 -0.785398 0.134634
-0.1 -0.722566 0.120494
-0.1 -0.659734 0.105704
-0.1 -0.596903 0.106511
-0.1 -0.534071 0.109649
-0.1 -0.471239 0.107889
-0.1 -0.408407 0.107829
-0.1 -0.345575 0.102077
-0.1 -0.282743 0.126868
-0.1 -0.219911 0.138728
-0.1 -0.15708 0.131057
-0.1 -0.0942478 0.1338
-0.1 -0.0314159 0.140593
-0.1 0.0314159 0.147793
-0.1 0.0942478 0.155939
-0.1 0.15708 0.156733
-0.1 0.219911 0.167334
-0.1 0.282743 0.163303
-0.1 0.345575 0.153745
-0.1 0.408407 0.16321
-0.1 0.471239 0.168889
-0.1 0.534071 0.166014
-0.1 0.596903 0.161737
-0.1 0.659734 0.163433
-0.1 0.722566 0.174097
-0.1 0.785398 0.180737
-0.1 0.84823 0.171028
-0.1 0.911062 0.152906
-0.1 0.973894 0.157158
-0.1 1.03673 0.159671
-0.1 1.09956 0.160668
-0.1 1.16239 0.160706
-0.1 1.22522 0.16452
-0.1 1.28805 0.174291
-0.1 1.35088 0.170932
-0.1 1.41372 0.157616
-0.1 1.47655 0.161987
-0.1 1.53938 0.153996
-0.1 1.60221 0.153685
-0.1 1.66504 0.154316
-0.1 1.72788 0.156511
-0.1 1.79071 0.163432
-0.1 1.85354 0.165207
-0.1 1.91637 0.148122
-0.1 1.9792 0.151281
-0.1 2.04204 0.152962
-0.1 2.10487 0.156299
-0.1 2.1677 0.1399
-0.1 2.23053 0.146949
-0.1 2.29336 0.14854
-0.1 2.35619 0.156724
-0.1 2.41903 0.137492
-0.1 2.48186 0.12276
-0.1 2.54469 0.125984
-0.1 2.60752 0.127337
-0.1 2.67035 0.12688
-0.1 2.73319 0.131939
-0.1 2.79602 0.126355
-0.1 2.85885 0.160958
-0.1 2.92168 0.162875
-0.1 2.98451 0.155447
-0.1 3.04734 0.161021
-0.1 3.11018 0.160857
-4.16334e-17 -3.11018 0.130581
-4.16334e-17 -3.04734 0.131469
-4.16334e-17 -2.98451 0.133641
-4.16334e-17 -2.92168 0.143381
-4.16334e-17 -2.85885 0.13285
-4.16334e-17 -2.79602 0.120899
-4.16334e-17 -2.73319 0.120459
-4.16334e-17 -2.67035 0.125573
-4.16334e-17 -2.60752 0.121586
-4.16334e-17 -2.54469 0.116693
-4.16334e-17 -2.48186 0.117439
-4.16334e-17 -2.41903 0.124527
-4.16334e-17 -2.35619 0.128986
-4.16334e-17 -2.29336 0.120236
-4.16334e-17 -2.23053 0.107345
-4.16334e-17 -2.1677 0.12015
-4.16334e-17 -2.10487 0.120051
-4.16334e-17 -2.04204 0.123479
-4.16334e-17 -1.9792 0.119825
-4.16334e-17 -1.91637 0.125789
-4.16334e-17 -1.85354 0.13311
-4.16334e-17 -1.79071 0.128545
-4.16334e-17 -1.72788 0.120995
-4.16334e-17 -1.66504 0.12295
-4.16334e-17 -1.60221 0.113872
-4.16334e-17 -1.53938 0.122171
-4.16334e-17 -1.47655 0.127327
-4.16334e-17 -1.41372 0.129549
-4.16334e-17 -1.35088 0.137462
-4.16334e-17 -1.28805 0.136833
-4.16334e-17 -1.22522 0.125994
-4.16334e-17 -1.16239 0.124947
-4.16334e-17 -1.09956 0.12626
-4.16334e-17 -1.03673 0.124698
-4.16334e-17 -0.973894 0.117014
-4.16334e-17 -0.911062 0.113381
-4.16334e-17 -0.84823 0.118617
-4.16334e-17 -0.785398 0.125463
-4.16334e-17 -0.722566 0.113547
-4.16334e-17 -0.659734 0.102949
-4.16334e-17 -0.596903 0.103332
-4.16334e-17 -0.534071 0.106947
-4.16334e-17 -0.471239 0.104556
-4.16334e-17 -0.408407 0.105492
-4.16334e-17 -0.345575 0.0998784
-4.16334e-17 -0.282743 0.119775
-4.16334e-17 -0.219911 0.126692
-4.16334e-17 -0.15708 0.118386
-4.16334e-17 -0.0942478 0.118212
-4.16334e-17 -0.0314159 0.118692
-4.16334e-17 0.0314159 0.121675
-4.16334e-17 0.0942478 0.126502
-4.16334e-17 0.15708 0.125676
-4.16334e-17 0.219911 0.135445
-4.16334e-17 0.282743 0.132141
-4.16334e-17 0.345575 0.123929
-4.16334e-17 0.408407 0.130502
-4.16334e-17 0.471239 0.135118
-4.16334e-17 0.534071 0.13357
-4.16334e-17 0.596903 0.131339
-4.16334e-17 0.659734 0.132219
-4.16334e-17 0.722566 0.141365
-4.16334e-17 0.785398 0.147615
-4.16334e-17 0.84823 0.139787
-4.16334e-17 0.911062 0.12457
-4.16334e-17 0.973894 0.127599
-4.16334e-17 1.03673 0.129171
-4.16334e-17 1.09956 0.130071
-4.16334e-17 1.16239 0.130628
-4.16334e-17 1.22522 0.134208
-4.16334e-17 1.28805 0.14226
-4.16334e-17 1.35088 0.140153
-4.16334e-17 1.41372 0.128724
-4.16334e-17 1.47655 0.132392
-4.16334e-17 1.53938 0.126447
-4.16334e-17 1.60221 0.126488
-4.16334e-17 1.66504 0.1283
-4.16334e-17 1.72788 0.129976
-4.16334e-17 1.79071 0.135952
-4.16334e-17 1.85354 0.137196
-4.16334e-17 1.91637 0.122603
-4.16334e-17 1.9792 0.124767
-4.16334e-17 2.04204 0.124962
-4.16334e-17 2.10487 0.128056
-4.16334e-17 2.1677 0.115492
-4.16334e-17 2.23053 0.121591
-4.16334e-17 2.29336 0.125033
-4.16334e-17 2.35619 0.134019
-4.16334e-17 2.41903 0.120136
-4.16334e-17 2.48186 0.111113
-4.16334e-17 2.54469 0.115755
-4.16334e-17 2.60752 0.11689
-4.16334e-17 2.67035 0.114278
-4.16334e-17 2.73319 0.117335
-4.16334e-17 2.79602 0.111107
-4.16334e-17 2.85885 0.136194
-4.16334e-17 2.92168 0.135598
-4.16334e-17 2.98451 0.128462
-4.16334e-17 3.04734 0.129979
-4.16334e-17 3.11018 0.12872
0.1 -3.11018 0.163181
0.1 -3.04734 0.165232
0.1 -2.98451 0.168487
0.1 -2.92168 0.17814
0.1 -2.85885 0.165496
0.1 -2.79602 0.153572
0.1 -2.73319 0.155662
0.1 -2.67035 0.162942
0.1 -2.60752 0.158633
0.1 -2.54469 0.152339
0.1 -2.48186 0.154233
0.1 -2.41903 0.164301
0.1 -2.35619 0.16706
0.1 -2.29336 0.155672
0.1 -2.23053 0.140141
0.1 -2.1677 0.157317
0.1 -2.10487 0.157039
0.1 -2.04204 0.161553
0.1 -1.9792 0.15634
0.1 -1.91637 0.1637
0.1 -1.85354 0.17273
0.1 -1.79071 0.166287
0.1 -1.72788 0.157754
0.1 -1.66504 0.161107
0.1 -1.60221 0.147493
0.1 -1.53938 0.157365
0.1 -1.47655 0.163131
0.1 -1.41372 0.165119
0.1 -1.35088 0.173165
0.1 -1.28805 0.172431
0.1 -1.22522 0.158051
0.1 -1.16239 0.158486
0.1 -1.09956 0.162503
0.1 -1.03673 0.162856
0.1 -0.973894 0.154781
0.1 -0.911062 0.155713
0.1 -0.84823 0.168031
0.1 -0.785398 0.176579
0.1 -0.722566 0.161766
0.1 -0.659734 0.151534
0.1 -0.596903 0.153483
0.1 -0.534071 0.159029
0.1 -0.471239 0.154406
0.1 -0.408407 0.157826
0.1 -0.345575 0.149537
0.1 -0.282743 0.172326
0.1 -0.219911 0.176978
0.1 -0.15708 0.165547
0.1 -0.0942478 0.164348
0.1 -0.0314159 0.158485
0.1 0.0314159 0.158838
0.1 0.0942478 0.162575
0.1 0.15708 0.157987
0.1 0.219911 0.169774
0.1 0.282743 0.164444
0.1 0.345575 0.154572
0.1 0.408407 0.163348
0.1 0.471239 0.169086
0.1 0.534071 0.166682
0.1 0.596903 0.165156
0.1 0.659734 0.165763
0.1 0.722566 0.176675
0.1 0.785398 0.184339
0.1 0.84823 0.175476
0.1 0.911062 0.156684
0.1 0.973894 0.161363
0.1 1.03673 0.162929
0.1 1.09956 0.164487
0.1 1.16239 0.166153
0.1 1.22522 0.169196
0.1 1.28805 0.178593
0.1 1.35088 0.176522
0.1 1.41372 0.163171
0.1 1.47655 0.1685
0.1 1.53938 0.161014
0.1 1.60221 0.161644
0.1 1.66504 0.165767
0.1 1.72788 0.168036
0.1 1.79071 0.175094
0.1 1.85354 0.175945
0.1 1.91637 0.158127
0.1 1.9792 0.162047
0.1 2.04204 0.161371
0.1 2.10487 0.165231
0.1 2.1677 0.149993
0.1 2.23053 0.157991
0.1 2.29336 0.164375
0.1 2.35619 0.178292
0.1 2.41903 0.163249
0.1 2.48186 0.156532
0.1 2.54469 0.166273
0.1 2.60752 0.16743
0.1 2.67035 0.161192
0.1 2.73319 0.161359
0.1 2.79602 0.150495
0.1 2.85885 0.178056
0.1 2.92168 0.17446
0.1 2.98451 0.16586
0.1 3.04734 0.165076
0.1 3.11018 0.161439
0.2 -3.11018 0.166608
0.2 -3.04734 0.169091
0.2 -2.98451 0.172647
0.2 -2.92168 0.181891
0.2 -2.85885 0.169024
0.2 -2.79602 0.156954
0.2 -2.73319 0.160135
0.2 -2.67035 0.167965
0.2 -2.60752 0.163223
0.2 -2.54469 0.157029
0.2 -2.48186 0.158742
0.2 -2.41903 0.16868
0.2 -2.35619 0.170424
0.2 -2.29336 0.159725
0.2 -2.23053 0.144175
0.2 -2.1677 0.163608
0.2 -2.10487 0.162526
0.2 -2.04204 0.166091
0.2 -1.9792 0.161804
0.2 -1.91637 0.168368
0.2 -1.85354 0.177713
0.2 -1.79071 0.171489
0.2 -1.72788 0.162401
0.2 -1.66504 0.165714
0.2 -1.60221 0.151333
0.2 -1.53938 0.161333
0.2 -1.47655 0.167411
0.2 -1.41372 0.169714
0.2 -1.35088 0.177671
0.2 -1.28805 0.177543
0.2 -1.22522 0.162257
0.2 -1.16239 0.163138
0.2 -1.09956 0.167174
0.2 -1.03673 0.168046
0.2 -0.973894 0.158954
0.2 -0.911062 0.158059
0.2 -0.84823 0.170789
0.2 -0.785398 0.179852
0.2 -0.722566 0.164735
0.2 -0.659734 0.154965
0.2 -0.596903 0.158454
0.2 -0.534071 0.16506
0.2 -0.471239 0.159637
0.2 -0.408407 0.163215
0.2 -0.345575 0.154379
0.2 -0.282743 0.176555
0.2 -0.219911 0.180554
0.2 -0.15708 0.169124
0.2 -0.0942478 0.168299
0.2 -0.0314159 0.162843
0.2 0.0314159 0.162283
0.2 0.0942478 0.166191
0.2 0.15708 0.161146
0.2 0.219911 0.172623
0.2 0.282743 0.166799
0.2 0.345575 0.157348
0.2 0.408407 0.167128
0.2 0.471239 0.172958
0.2 0.534071 0.170264
0.2 0.596903 0.1692
0.2 0.659734 0.169442
0.2 0.722566 0.181005
0.2 0.785398 0.187116
0.2 0.84823 0.178443
0.2 0.911062 0.159005
0.2 0.973894 0.16382
0.2 1.03673 0.165277
0.2 1.09956 0.167871
0.2 1.16239 0.169474
0.2 1.22522 0.17249
0.2 1.28805 0.182515
0.2 1.35088 0.180662
0.2 1.41372 0.167676
0.2 1.47655 0.173015
0.2 1.53938 0.164932
0.2 1.60221 0.164429
0.2 1.66504 0.168579
0.2 1.72788 0.171067
0.2 1.79071 0.178123
0.2 1.85354 0.178628
0.2 1.91637 0.161477
0.2 1.9792 0.166109
0.2 2.04204 0.165309
0.2 2.10487 0.169403
0.2 2.1677 0.15379
0.2 2.23053 0.161189
0.2 2.29336 0.168149
0.2 2.35619 0.181797
0.2 2.41903 0.166853
0.2 2.48186 0.161006
0.2 2.54469 0.171184
0.2 2.60752 0.173086
0.2 2.67035 0.16615
0.2 2.73319 0.165195
0.2 2.79602 0.154647
0.2 2.85885 0.181965
0.2 2.92168 0.178459
0.2 2.98451 0.17085
0.2 3.04734 0.170086
0.2 3.11018 0.1659
0.3 -3.11018 0.170443
0.3 -3.04734 0.172923
0.3 -2.98451 0.176412
0.3 -2.92168 0.185233
0.3 -2.85885 0.172023
0.3 -2.79602 0.160267
0.3 -2.73319 0.165442
0.3 -2.67035 0.174451
0.3 -2.60752 0.167954
0.3 -2.54469 0.162134
0.3 -2.48186 0.16492
0.3 -2.41903 0.173477
0.3 -2.35619 0.174667
0.3 -2.29336 0.164086
0.3 -2.23053 0.148588
0.3 -2.1677 0.169933
0.3 -2.10487 0.168737
0.3 -2.04204 0.17164
0.3 -1.9792 0.167176
0.3 -1.91637 0.173017
0.3 -1.85354 0.183293
0.3 -1.79071 0.176288
0.3 -1.72788 0.167012
0.3 -1.66504 0.170135
0.3 -1.60221 0.155585
0.3 -1.53938 0.165469
0.3 -1.47655 0.171529
0.3 -1.41372 0.174017
0.3 -1.35088 0.18127
0.3 -1.28805 0.181291
0.3 -1.22522 0.166662
0.3 -1.16239 0.168415
0.3 -1.09956 0.171632
0.3 -1.03673 0.173276
0.3 -0.973894 0.163214
0.3 -0.911062 0.160456
0.3 -0.84823 0.173748
0.3 -0.785398 0.182681
0.3 -0.722566 0.167358
0.3 -0.659734 0.158261
0.3 -0.596903 0.163867
0.3 -0.534071 0.170402
0.3 -0.471239 0.163779
0.3 -0.408407 0.167509
0.3 -0.345575 0.157708
0.3 -0.282743 0.179046
0.3 -0.219911 0.183332
0.3 -0.15708 0.172447
0.3 -0.0942478 0.17177
0.3 -0.0314159 0.166784
0.3 0.0314159 0.165405
0.3 0.0942478 0.169695
0.3 0.15708 0.164167
0.3 0.219911 0.175225
0.3 0.282743 0.168521
0.3 0.345575 0.159779
0.3 0.408407 0.170534
0.3 0.471239 0.176484
0.3 0.534071 0.173679
0.3 0.596903 0.173045
0.3 0.659734 0.173706
0.3 0.722566 0.185483
0.3 0.785398 0.189918
0.3 0.84823 0.181516
0.3 0.911062 0.16126
0.3 0.973894 0.166799
0.3 1.03673 0.168241
0.3 1.09956 0.171347
0.3 1.16239 0.173128
0.3 1.22522 0.176114
0.3 1.28805 0.188179
0.3 1.35088 0.18709
0.3 1.41372 0.17356
0.3 1.47655 0.179087
0.3 1.53938 0.170064
0.3 1.60221 0.167428
0.3 1.66504 0.17084
0.3 1.72788 0.173615
0.3 1.79071 0.180368
0.3 1.85354 0.180238
0.3 1.91637 0.163935
0.3 1.9792 0.169659
0.3 2.04204 0.169026
0.3 2.10487 0.173286
0.3 2.1677 0.156911
0.3 2.23053 0.163593
0.3 2.29336 0.170868
0.3 2.35619 0.184377
0.3 2.41903 0.169201
0.3 2.48186 0.164438
0.3 2.54469 0.17465
0.3 2.60752 0.177384
0.3 2.67035 0.169649
0.3 2.73319 0.167687
0.3 2.79602 0.157825
0.3 2.85885 0.185214
0.3 2.92168 0.181794
0.3 2.98451 0.175169
0.3 3.04734 0.174842
0.3 3.11018 0.170154
0.4 -3.11018 0.174574
0.4 -3.04734 0.176383
0.4 -2.98451 0.179395
0.4 -2.92168 0.187905
0.4 -2.85885 0.174181
0.4 -2.79602 0.163563
0.4 -2.73319 0.169654
0.4 -2.67035 0.178855
0.4 -2.60752 0.172205
0.4 -2.54469 0.16683
0.4 -2.48186 0.170797
0.4 -2.41903 0.178366
0.4 -2.35619 0.180248
0.4 -2.29336 0.168908
0.4 -2.23053 0.153707
0.4 -2.1677 0.178464
0.4 -2.10487 0.176489
0.4 -2.04204 0.178583
0.4 -1.9792 0.175531
0.4 -1.91637 0.178942
0.4 -1.85354 0.188719
0.4 -1.79071 0.180416
0.4 -1.72788 0.171395
0.4 -1.66504 0.175597
0.4 -1.60221 0.160262
0.4 -1.53938 0.170326
0.4 -1.47655 0.175981
0.4 -1.41372 0.178042
0.4 -1.35088 0.184389
0.4 -1.28805 0.183753
0.4 -1.22522 0.169901
0.4 -1.16239 0.173761
0.4 -1.09956 0.175295
0.4 -1.03673 0.177948
0.4 -0.973894 0.16649
0.4 -0.911062 0.16266
0.4 -0.84823 0.176538
0.4 -0.785398 0.184512
0.4 -0.722566 0.168872
0.4 -0.659734 0.161288
0.4 -0.596903 0.169317
0.4 -0.534071 0.174753
0.4 -0.471239 0.167159
0.4 -0.408407 0.170907
0.4 -0.345575 0.160524
0.4 -0.282743 0.181181
0.4 -0.219911 0.186305
0.4 -0.15708 0.175853
0.4 -0.0942478 0.17524
0.4 -0.0314159 0.17009
0.4 0.0314159 0.167814
0.4 0.0942478 0.172923
0.4 0.15708 0.167097
0.4 0.219911 0.177012
0.4 0.282743 0.169314
0.4 0.345575 0.161804
0.4 0.408407 0.173403
0.4 0.471239 0.179526
0.4 0.534071 0.176453
0.4 0.596903 0.175994
0.4 0.659734 0.17703
0.4 0.722566 0.188875
0.4 0.785398 0.192524
0.4 0.84823 0.184189
0.4 0.911062 0.163625
0.4 0.973894 0.169451
0.4 1.03673 0.170849
0.4 1.09956 0.174165
0.4 1.16239 0.176013
0.4 1.22522 0.179365
0.4 1.28805 0.194612
0.4 1.35088 0.195905
0.4 1.41372 0.182124
0.4 1.47655 0.188109
0.4 1.53938 0.176655
0.4 1.60221 0.170594
0.4 1.66504 0.173092
0.4 1.72788 0.175611
0.4 1.79071 0.182003
0.4 1.85354 0.181216
0.4 1.91637 0.166151
0.4 1.9792 0.172987
0.4 2.04204 0.172277
0.4 2.10487 0.176662
0.4 2.1677 0.159376
0.4 2.23053 0.166057
0.4 2.29336 0.173223
0.4 2.35619 0.186767
0.4 2.41903 0.171383
0.4 2.48186 0.167657
0.4 2.54469 0.178027
0.4 2.60752 0.181131
0.4 2.67035 0.173434
0.4 2.73319 0.170541
0.4 2.79602 0.160438
0.4 2.85885 0.188002
0.4 2.92168 0.18486
0.4 2.98451 0.178834
0.4 3.04734 0.179204
0.4 3.11018 0.174396
0.5 -3.11018 0.0886671
0.5 -3.04734 0.0891881
0.5 -2.98451 0.0905766
0.5 -2.92168 0.094697
0.5 -2.85885 0.0876768
0.5 -2.79602 0.0828045
0.5 -2.73319 0.0859666
0.5 -2.67035 0.0904443
0.5 -2.60752 0.0874856
0.5 -2.54469 0.0851051
0.5 -2.48186 0.0871909
0.5 -2.41903 0.09099
0.5 -2.35619 0.0926815
0.5 -2.29336 0.0863443
0.5 -2.23053 0.0788759
0.5 -2.1677 0.0920309
0.5 -2.10487 0.0908173
0.5 -2.04204 0.0914084
0.5 -1.9792 0.0906448
0.5 -1.91637 0.0913188
0.5 -1.85354 0.0959462
0.5 -1.79071 0.0913808
0.5 -1.72788 0.0870478
0.5 -1.66504 0.08978
0.5 -1.60221 0.0817134
0.5 -1.53938 0.0869278
0.5 -1.47655 0.0896599
0.5 -1.41372 0.0902669
0.5 -1.35088 0.0932188
0.5 -1.28805 0.0923758
0.5 -1.22522 0.0857086
0.5 -1.16239 0.0883288
0.5 -1.09956 0.0884485
0.5 -1.03673 0.0903431
0.5 -0.973894 0.0840369
0.5 -0.911062 0.0822361
0.5 -0.84823 0.0892797
0.5 -0.785398 0.0928488
0.5 -0.722566 0.0849744
0.5 -0.659734 0.0816657
0.5 -0.596903 0.0863973
0.5 -0.534071 0.0885011
0.5 -0.471239 0.0846089
0.5 -0.408407 0.0865467
0.5 -0.345575 0.0810197
0.5 -0.282743 0.0912668
0.5 -0.219911 0.0940086
0.5 -0.15708 0.0890124
0.5 -0.0942478 0.0888946
0.5 -0.0314159 0.0863599
0.5 0.0314159 0.0851452
0.5 0.0942478 0.087944
0.5 0.15708 0.0845563
0.5 0.219911 0.0891623
0.5 0.282743 0.0849147
0.5 0.345575 0.0816445
0.5 0.408407 0.0877421
0.5 0.471239 0.0908007
0.5 0.534071 0.0892
0.5 0.596903 0.0889515
0.5 0.659734 0.0892929
0.5 0.722566 0.0953057
0.5 0.785398 0.0969661
0.5 0.84823 0.0928081
0.5 0.911062 0.0825952
0.5 0.973894 0.0855373
0.5 1.03673 0.086124
0.5 1.09956 0.0879257
0.5 1.16239 0.0889359
0.5 1.22522 0.0909385
0.5 1.28805 0.0997531
0.5 1.35088 0.101284
0.5 1.41372 0.0945519
0.5 1.47655 0.0975403
0.5 1.53938 0.0908098
0.5 1.60221 0.0864773
0.5 1.66504 0.0875654
0.5 1.72788 0.0886944
0.5 1.79071 0.091741
0.5 1.85354 0.0910014
0.5 1.91637 0.083868
0.5 1.9792 0.0876747
0.5 2.04204 0.087361
0.5 2.10487 0.0894721
0.5 2.1677 0.0804115
0.5 2.23053 0.0835953
0.5 2.29336 0.086992
0.5 2.35619 0.0938045
0.5 2.41903 0.0862902
0.5 2.48186 0.0847179
0.5 2.54469 0.0899868
0.5 2.60752 0.0914183
0.5 2.67035 0.0878635
0.5 2.73319 0.0864377
0.5 2.79602 0.0809334
0.5 2.85885 0.0947956
0.5 2.92168 0.0932896
0.5 2.98451 0.0905619
0.5 3.04734 0.091033
0.5 3.11018 0.0885304
0.6 -3.11018 0
0.6 -3.04734 0
0.6 -2.98451 0
0.6 -2.92168 0
0.6 -2.85885 0
0.6 -2.79602 0
0.6 -2.73319 0
0.6 -2.67035 0
0.6 -2.60752 0
0.6 -2.54469 0
0.6 -2.48186 0
0.6 -2.41903 0
0.6 -2.35619 0
0.6 -2.29336 0
0.6 -2.23053 0
0.6 -2.1677 0
0.6 -2.10487 0
0.6 -2.04204 0
0.6 -1.9792 0
0.6 -1.91637 0
0.6 -1.85354 0
0.6 -1.79071 0
0.6 -1.72788 0
0.6 -1.66504 0
0.6 -1.60221 0
0.6 -1.53938 0
0.6 -1.47655 0
0.6 -1.41372 0
0.6 -1.35088 0
0.6 -1.28805 0
0.6 -1.22522 0
0.6 -1.16239 0
0.6 -1.09956 0
0.6 -1.03673 0
0.6 -0.973894 0
0.6 -0.911062 0
0.6 -0.84823 0
0.6 -0.785398 0
0.6 -0.722566 0
0.6 -0.659734 0
0.6 -0.596903 0
0.6 -0.534071 0
0.6 -0.471239 0
0.6 -0.408407 0
0.6 -0.345575 0
0.6 -0.282743 0
0.6 -0.219911 0
0.6 -0.15708 0
0.6 -0.0942478 0
0.6 -0.0314159 0
0.6 0.0314159 0
0.6 0.0942478 0
0.6 0.15708 0
0.6 0.219911 0
0.6 0.282743 0
0.6 0.345575 0
0.6 0.408407 0
0.6 0.471239 0
0.6 0.534071 0
0.6 0.596903 0
0.6 0.659734 0
0.6 0.722566 0
0.6 0.785398 0
0.6 0.84823 0
0.6 0.911062 0
0.6 0.973894 0
0.6 1.03673 0
0.6 1.09956 0
0.6 1.16239 0
0.6 1.22522 0
0.6 1.28805 0
0.6 1.35088 0
0.6 1.41372 0
0.6 1.47655 0
0.6 1.53938 0
0.6 1.60221 0
0.6 1.66504 0
0.6 1.72788 0
0.6 1.79071 0
0.6 1.85354 0
0.6 1.91637 0
0.6 1.9792 0
0.6 2.04204 0
0.6 2.10487 0
0.6 2.1677 0
0.6 2.23053 0
0.6 2.29336 0
0.6 2.35619 0
0.6 2.41903 0
0.6 2.48186 0
0.6 2.54469 0
0.6 2.60752 0
0.6 2.67035 0
0.6 2.73319 0
0.6 2.79602 0
0.6 2.85885 0
0.6 2.92168 0
0.6 2.98451 0
0.6 3.04734 0
0.6 3.11018 0
0.7 -3.11018 0
0.7 -3.04734 0
0.7 -2.98451 0
0.7 -2.92168 0
0.7 -2.85885 0
0.7 -2.79602 0
0.7 -2.73319 0
0.7 -2.67035 0
0.7 -2.60752 0
0.7 -2.54469 0
0.7 -2.48186 0
0.7 -2.41903 0
0.7 -2.35619 0
0.7 -2.29336 0
0.7 -2.23053 0
0.7 -2.1677 0
0.7 -2.10487 0
0.7 -2.04204 0
0.7 -1.9792 0
0.7 -1.91637 0
0.7 -1.85354 0
0.7 -1.79071 0
0.7 -1.72788 0
0.7 -1.66504 0
0.7 -1.60221 0
0.7 -1.53938 0
0.7 -1.47655 0
0.7 -1.41372 0
0.7 -1.35088 0
0.7 -1.28805 0
0.7 -1.22522 0
0.7 -1.16239 0
0.7 -1.09956 0
0.7 -1.03673 0
0.7 -0.973894 0
0.7 -0.911062 0
0.7 -0.84823 0
0.7 -0.785398 0
0.7 -0.722566 0
0.7 -0.659734 0
0.7 -0.596903 0
0.7 -0.534071 0
0.7 -0.471239 0
0.7 -0.408407 0
0.7 -0.345575 0
0.7 -0.282743 0
0.7 -0.219911 0
0.7 -0.15708 0
0.7 -0.0942478 0
0.7 -0.0314159 0
0.7 0.0314159 0
0.7 0.0942478 0
0.7 0.15708 0
0.7 0.219911 0
0.7 0.282743 0
0.7 0.345575 0
0.7 0.408407 0
0.7 0.471239 0
0.7 0.534071 0
0.7 0.596903 0
0.7 0.659734 0
0.7 0.722566 0
0.7 0.785398 0
0.7 0.84823 0
0.7 0.911062 0
0.7 0.973894 0
0.7 1.03673 0
0.7 1.09956 0
0.7 1.16239 0
0.7 1.22522 0
0.7 1.28805 0
0.7 1.35088 0
0.7 1.41372 0
0.7 1.47655 0
0.7 1.53938 0
0.7 1.60221 0
0.7 1.66504 0
0.7 1.72788 0
0.7 1.79071 0
0.7 1.85354 0
0.7 1.91637 0
0.7 1.9792 0
0.7 2.04204 0
0.7 2.10487 0
0.7 2.1677 0
0.7 2.23053 0
0.7 2.29336 0
0.7 2.35619 0
0.7 2.41903 0
0.7 2.48186 0
0.7 2.54469 0
0.7 2.60752 0
0.7 2.67035 0
0.7 2.73319 0
0.7 2.79602 0
0.7 2.85885 0
0.7 2.92168 0
0.7 2.98451 0
0.7 3.04734 0
0.7 3.11018 0
0.8 -3.11018 0
0.8 -3.04734 0
0.8 -2.98451 0
0.8 -2.92168 0
0.8 -2.85885 0
0.8 -2.79602 0
0.8 -2.73319 0
0.8 -2.67035 0
0.8 -2.60752 0
0.8 -2.54469 0
0.8 -2.48186 0
0.8 -2.41903 0
0.8 -2.35619 0
0.8 -2.29336 0
0.8 -2.23053 0
0.8 -2.1677 0
0.8 -2.10487 0
0.8 -2.04204 0
0.8 -1.9792 0
0.8 -1.91637 0
0.8 -1.85354 0
0.8 -1.79071 0
0.8 -1.72788 0
0.8 -1.66504 0
0.8 -1.60221 0
0.8 -1.53938 0
0.8 -1.47655 0
0.8 -1.41372 0
0.8 -1.35088 0
0.8 -1.28805 0
0.8 -1.22522 0
0.8 -1.16239 0
0.8 -1.09956 0
0.8 -1.03673 0
0.8 -0.973894 0
0.8 -0.911062 0
0.8 -0.84823 0
0.8 -0.785398 0
0.8 -0.722566 0
0.8 -0.659734 0
0.8 -0.596903 0
0.8 -0.534071 0
0.8 -0.471239 0
0.8 -0.408407 0
0.8 -0.345575 0
0.8 -0.282743 0
0.8 -0.219911 0
0.8 -0.15708 0
0.8 -0.0942478 0
0.8 -0.0314159 0
0.8 0.0314159 0
0.8 0.0942478 0
0.8 0.15708 0
0.8 0.219911 0
0.8 0.282743 0
0.8 0.345575 0
0.8 0.408407 0
0.8 0.471239 0
0.8 0.534071 0
0.8 0.596903 0
0.8 0.659734 0
0.8 0.722566 0
0.8 0.785398 0
0.8 0.84823 0
0.8 0.911062 0
0.8 0.973894 0
0.8 1.03673 0
0.8 1.09956 0
0.8 1.16239 0
0.8 1.22522 0
0.8 1.28805 0
0.8 1.35088 0
0.8 1.41372 0
0.8 1.47655 0
0.8 1.53938 0
0.8 1.60221 0
0.8 1.66504 0
0.8 1.72788 0
0.8 1.79071 0
0.8 1.85354 0
0.8 1.91637 0
0.8 1.9792 0
0.8 2.04204 0
0.8 2.10487 0
0.8 2.1677 0
0.8 2.23053 0
0.8 2.29336 0
0.8 2.35619 0
0.8 2.41903 0
0.8 2.48186 0
0.8 2.54469 0
0.8 2.60752 0
0.8 2.67035 0
0.8 2.73319 0
0.8 2.79602 0
0.8 2.85885 0
0.8 2.92168 0
0.8 2.98451 0
0.8 3.04734 0
0.8 3.11018 0
0.9 -3.11018 0
0.9 -3.04734 0
0.9 -2.98451 0
0.9 -2.92168 0
0.9 -2.85885 0
0.9 -2.79602 0
0.9 -2.73319 0
0.9 -2.67035 0
0.9 -2.60752 0
0.9 -2.54469 0
0.9 -2.48186 0
0.9 -2.41903 0
0.9 -2.35619 0
0.9 -2.29336 0
0.9 -2.23053 0
0.9 -2.1677 0
0.9 -2.10487 0
0.9 -2.04204 0
0.9 -1.9792 0
0.9 -1.91637 0
0.9 -1.85354 0
0.9 -1.79071 0
0.9 -1.72788 0
0.9 -1.66504 0
0.9 -1.60221 0
0.9 -1.53938 0
0.9 -1.47655 0
0.9 -1.41372 0
0.9 -1.35088 0
0.9 -1.28805 0
0.9 -1.22522 0
0.9 -1.16239 0
0.9 -1.09956 0
0.9 -1.03673 0
0.9 -0.973894 0
0.9 -0.911062 0
0.9 -0.84823 0
0.9 -0.785398 0
0.9 -0.722566 0
0.9 -0.659734 0
0.9 -0.596903 0
0.9 -0.534071 0
0.9 -0.471239 0
0.9 -0.408407 0
0.9 -0.345575 0
0.9 -0.282743 0
0.9 -0.219911 0
0.9 -0.15708 0
0.9 -0.0942478 0
0.9 -0.0314159 0
0.9 0.0314159 0
0.9 0.0942478 0
0.9 0.15708 0
0.9 0.219911 0
0.9 0.282743 0
0.9 0.345575 0
0.9 0.408407 0
0.9 0.471239 0
0.9 0.534071 0
0.9 0.596903 0
0.9 0.659734 0
0.9 0.722566 0
0.9 0.785398 0
0.9 0.84823 0
0.9 0.911062 0
0.9 0.973894 0
0.9 1.03673 0
0.9 1.09956 0
0.9 1.16239 0
0.9 1.22522 0
0.9 1.28805 0
0.9 1.35088 0
0.9 1.41372 0
0.9 1.47655 0
0.9 1.53938 0
0.9 1.60221 0
0.9 1.66504 0
0.9 1.72788 0
0.9 1.79071 0
0.9 1.85354 0
0.9 1.91637 0
0.9 1.9792 0
0.9 2.04204 0
0.9 2.10487 0
0.9 2.1677 0
0.9 2.23053 0
0.9 2.29336 0
0.9 2.35619 0
0.9 2.41903 0
0.9 2.48186 0
0.9 2.54469 0
0.9 2.60752 0
0.9 2.67035 0
0.9 2.73319 0
0.9 2.79602 0
0.9 2.85885 0
0.9 2.92168 0
0.9 2.98451 0
0.9 3.04734 0
0.9 3.11018 0
1 -3.11018 0
1 -3.04734 0
1 -2.98451 0
1 -2.92168 0
1 -2.85885 0
1 -2.79602 0
1 -2.73319 0
1 -2.67035 0
1 -2.60752 0
1 -2.54469 0
1 -2.48186 0
1 -2.41903 0
1 -2.35619 0
1 -2.29336 0
1 -2.23053 0
1 -2.1677 0
1 -2.10487 0
1 -2.04204 0
1 -1.9792 0
1 -1.91637 0
1 -1.85354 0
1 -1.79071 0
1 -1.72788 0
1 -1.66504 0
1 -1.60221 0
1 -1.53938 0
1 -1.47655 0
1 -1.41372 0
1 -1.35088 0
1 -1.28805 0
1 -1.22522 0
1 -1.16239 0
1 -1.09956 0
1 -1.03673 0
1 -0.973894 0
1 -0.911062 0
1 -0.84823 0
1 -0.785398 0
1 -0.722566 0
1 -0.659734 0
1 -0.596903 0
1 -0.534071 0
1 -0.471239 0
1 -0.408407 0
1 -0.345575 0
1 -0.282743 0
1 -0.219911 0
1 -0.15708 0
1 -0.0942478 0
1 -0.0314159 0
1 0.0314159 0
1 0.0942478 0
1 0.15708 0
1 0.219911 0
1 0.282743 0
1 0.345575 0
1 0.408407 0
1 0.471239 0
1 0.534071 0
1 0.596903 0
1 0.659734 0
1 0.722566 0
1 0.785398 0
1 0.84823 0
1 0.911062 0
1 0.973894 0
1 1.03673 0
1 1.09956 0
1 1.16239 0
1 1.22522 0
1 1.28805 0
1 1.35088 0
1 1.41372 0
1 1.47655 0
1 1.53938 0
1 1.60221 0
1 1.66504 0
1 1.72788 0
1 1.79071 0
1 1.85354 0
1 1.91637 0
1 1.9792 0
1 2.04204 0
1 2.10487 0
1 2.1677 0
1 2.23053 0
1 2.29336 0
1 2.35619 0
1 2.41903 0
1 2.48186 0
1 2.54469 0
1 2.60752 0
1 2.67035 0
1 2.73319 0
1 2.79602 0
1 2.85885 0
1 2.92168 0
1 2.98451 0
1 3.04734 0
1 3.11018 0
1.1 -3.11018 0
1.1 -3.04734 0
1.1 -2.98451 0
1.1 -2.92168 0
1.1 -2.85885 0
1.1 -2.79602 0
1.1 -2.73319 0
1.1 -2.67035 0
1.1 -2.60752 0
1.1 -2.54469 0
1.1 -2.48186 0
1.1 -2.41903 0
1.1 -2.35619 0
1.1 -2.29336 0
1.1 -2.23053 0
1.1 -2.1677 0
1.1 -2.10487 0
1.1 -2.04204 0
1.1 -1.9792 0
1.1 -1.91637 0
1.1 -1.85354 0
1.1 -1.79071 0
1.1 -1.72788 0
1.1 -1.66504 0
1.1 -1.60221 0
1.1 -1.53938 0
1.1 -1.47655 0
1.1 -1.41372 0
1.1 -1.35088 0
1.1 -1.28805 0
1.1 -1.22522 0
1.1 -1.16239 0
1.1 -1.09956 0
1.1 -1.03673 0
1.1 -0.973894 0
1.1 -0.911062 0
1.1 -0.84823 0
1.1 -0.785398 0
1.1 -0.722566 0
1.1 -0.659734 0
1.1 -0.596903 0
1.1 -0.534071 0
1.1 -0.471239 0
1.1 -0.408407 0
1.1 -0.345575 0
1.1 -0.282743 0
1.1 -0.219911 0
1.1 -0.15708 0
1.1 -0.0942478 0
1.1 -0.0314159 0
1.1 0.0314159 0
1.1 0.0942478 0
1.1 0.15708 0
1.1 0.219911 0
1.1 0.282743 0
1.1 0.345575 0
1.1 0.408407 0
1.1 0.471239 0
1.1 0.534071 0
1.1 0.596903 0
1.1 0.659734 0
1.1 0.722566 0
1.1 0.785398 0
1.1 0.84823 0
1.1 0.911062 0
1.1 0.973894 0
1.1 1.03673 0
1.1 1.09956 0
1.1 1.16239 0
1.1 1.22522 0
1.1 1.28805 0
1.1 1.35088 0
1.1 1.41372 0
1.1 1.47655 0
1.1 1.53938 0
1.1 1.60221 0
1.1 1.66504 0
1.1 1.72788 0
1.1 1.79071 0
1.1 1.85354 0
1.1 1.91637 0
1.1 1.9792 0
1.1 2.04204 0
1.1 2.10487 0
1.1 2.1677 0
1.1 2.23053 0
1.1 2.29336 0
1.1 2.35619 0
1.1 2.41903 0
1.1 2.48186 0
1.1 2.54469 0
1.1 2.60752 0
1.1 2.67035 0
1.1 2.73319 0
1.1 2.79602 0
1.1 2.85885 0
1.1 2.92168 0
1.1 2.98451 0
1.1 3.04734 0
1.1 3.11018 0
1.2 -3.11018 0
1.2 -3.04734 0
1.2 -2.98451 0
1.2 -2.92168 0
1.2 -2.85885 0
1.2 -2.79602 0
1.2 -2.73319 0
1.2 -2.67035 0
1.2 -2.60752 0
1.2 -2.54469 0
1.2 -2.48186 0
1.2 -2.41903 0
1.2 -2.35619 0
1.2 -2.29336 0
1.2 -2.23053 0
1.2 -2.1677 0
1.2 -2.10487 0
1.2 -2.04204 0
1.2 -1.9792 0
1.2 -1.91637 0
1.2 -1.85354 0
1.2 -1.79071 0
1.2 -1.72788 0
1.2 -1.66504 0
1.2 -1.60221 0
1.2 -1.53938 0
1.2 -1.47655 0
1.2 -1.41372 0
1.2 -1.35088 0
1.2 -1.28805 0
1.2 -1.22522 0
1.2 -1.16239 0
1.2 -1.09956 0
1.2 -1.03673 0
1.2 -0.973894 0
1.2 -0.911062 0
1.2 -0.84823 0
1.2 -0.785398 0
1.2 -0.722566 0
1.2 -0.659734 0
1.2 -0.596903 0
1.2 -0.534071 0
1.2 -0.471239 0
1.2 -0.408407 0
1.2 -0.345575 0
1.2 -0.282743 0
1.2 -0.219911 0
1.2 -0.15708 0
1.2 -0.0942478 0
1.2 -0.0314159 0
1.2 0.0314159 0
1.2 0.0942478 0
1.2 0.15708 0
1.2 0.219911 0
1.2 0.282743 0
1.2 0.345575 0
1.2 0.408407 0
1.2 0.471239 0
1.2 0.534071 0
1.2 0.596903 0
1.2 0.659734 0
1.2 0.722566 0
1.2 0.785398 0
1.2 0.84823 0
1.2 0.911062 0
1.2 0.973894 0
1.2 1.03673 0
1.2 1.09956 0
1.2 1.16239 0
1.2 1.22522 0
1.2 1.28805 0
1.2 1.35088 0
1.2 1.41372 0
1.2 1.47655 0
1.2 1.53938 0
1.2 1.60221 0
1.2 1.66504 0
1.2 1.72788 0
1.2 1.79071 0
1.2 1.85354 0
1.2 1.91637 0
1.2 1.9792 0
1.2 2.04204 0
1.2 2.10487 0
1.2 2.1677 0
1.2 2.23053 0
1.2 2.29336 0
1.2 2.35619 0
1.2 2.41903 0
1.2 2.48186 0
1.2 2.54469 0
1.2 2.60752 0
1.2 2.67035 0
1.2 2.73319 0
1.2 2.79602 0
1.2 2.85885 0
1.2 2.92168 0
1.2 2.98451 0
1.2 3.04734 0
1.2 3.11018 0
1.3 -3.11018 0
1.3 -3.04734 0
1.3 -2.98451 0
1.3 -2.92168 0
1.3 -2.85885 0
1.3 -2.79602 0
1.3 -2.73319 0
1.3 -2.67035 0
1.3 -2.60752 0
1.3 -2.54469 0
1.3 -2.48186 0
1.3 -2.41903 0
1.3 -2.35619 0
1.3 -2.29336 0
1.3 -2.23053 0
1.3 -2.1677 0
1.3 -2.10487 0
1.3 -2.04204 0
1.3 -1.9792 0
1.3 -1.91637 0
1.3 -1.85354 0
1.3 -1.79071 0
1.3 -1.72788 0
1.3 -1.66504 0
1.3 -1.60221 0
1.3 -1.53938 0
1.3 -1.47655 0
1.3 -1.41372 0
1.3 -1.35088 0
1.3 -1.28805 0
1.3 -1.22522 0
1.3 -1.16239 0
1.3 -1.09956 0
1.3 -1.03673 0
1.3 -0.973894 0
1.3 -0.911062 0
1.3 -0.84823 0
1.3 -0.785398 0
1.3 -0.722566 0
1.3 -0.659734 0
1.3 -0.596903 0
1.3 -0.534071 0
1.3 -0.471239 0
1.3 -0.408407 0
1.3 -0.345575 0
1.3 -0.282743 0
1.3 -0.219911 0
1.3 -0.15708 0
1.3 -0.0942478 0
1.3 -0.0314159 0
1.3 0.0314159 0
1.3 0.0942478 0
1.3 0.15708 0
1.3 0.219911 0
1.3 0.282743 0
1.3 0.345575 0
1.3 0.408407 0
1.3 0.471239 0
1.3 0.534071 0
1.3 0.596903 0
1.3 0.659734 0
1.3 0.722566 0
1.3 0.785398 0
1.3 0.84823 0
1.3 0.911062 0
1.3 0.973894 0
1.3 1.03673 0
1.3 1.09956 0
1.3 1.16239 0
1.3 1.22522 0
1.3 1.28805 0
1.3 1.35088 0
1.3 1.41372 0
1.3 1.47655 0
1.3 1.53938 0
1.3 1.60221 0
1.3 1.66504 0
1.3 1.72788 0
1.3 1.79071 0
1.3 1.85354 0
1.3 1.91637 0
1.3 1.9792 0
1.3 2.04204 0
1.3 2.10487 0
1.3 2.1677 0
1.3 2.23053 0
1.3 2.29336 0
1.3 2.35619 0
1.3 2.41903 0
1.3 2.48186 0
1.3 2.54469 0
1.3 2.60752 0
1.3 2.67035 0
1.3 2.73319 0
1.3 2.79602 0
1.3 2.85885 0
1.3 2.92168 0
1.3 2.98451 0
1.3 3.04734 0
1.3 3.11018 0
1.4 -3.11018 0
1.4 -3.04734 0
1.4 -2.98451 0
1.4 -2.92168 0
1.4 -2.85885 0
1.4 -2.79602 0
1.4 -2.73319 0
1.4 -2.67035 0
1.4 -2.60752 0
1.4 -2.54469 0
1.4 -2.48186 0
1.4 -2.41903 0
1.4 -2.35619 0
1.4 -2.29336 0
1.4 -2.23053 0
1.4 -2.1677 0
1.4 -2.10487 0
1.4 -2.04204 0
1.4 -1.9792 0
1.4 -1.91637 0
1.4 -1.85354 0
1.4 -1.79071 0
1.4 -1.72788 0
1.4 -1.66504 0
1.4 -1.60221 0
1.4 -1.53938 0
1.4 -1.47655 0
1.4 -1.41372 0
1.4 -1.35088 0
1.4 -1.28805 0
1.4 -1.22522 0
1.4 -1.16239 0
1.4 -1.09956 0
1.4 -1.03673 0
1.4 -0.973894 0
1.4 -0.911062 0
1.4 -0.84823 0
1.4 -0.785398 0
1.4 -0.722566 0
1.4 -0.659734 0
1.4 -0.596903 0
1.4 -0.534071 0
1.4 -0.471239 0
1.4 -0.408407 0
1.4 -0.345575 0
1.4 -0.282743 0
1.4 -0.219911 0
1.4 -0.15708 0
1.4 -0.0942478 0
1.4 -0.0314159 0
1.4 0.0314159 0
1.4 0.0942478 0
1.4 0.15708 0
1.4 0.219911 0
1.4 0.282743 0
1.4 0.345575 0
1.4 0.408407 0
1.4 0.471239 0
1.4 0.534071 0
1.4 0.596903 0
1.4 0.659734 0
1.4 0.722566 0
1.4 0.785398 0
1.4 0.84823 0
1.4 0.911062 0
1.4 0.973894 0
1.4 1.03673 0
1.4 1.09956 0
1.4 1.16239 0
1.4 1.22522 0
1.4 1.28805 0
1.4 1.35088 0
1.4 1.41372 0
1.4 1.47655 0
1.4 1.53938 0
1.4 1.60221 0
1.4 1.66504 0
1.4 1.72788 0
1.4 1.79071 0
1.4 1.85354 0
1.4 1.91637 0
1.4 1.9792 0
1.4 2.04204 0
1.4 2.10487 0
1.4 2.1677 0
1.4 2.23053 0
1.4 2.29336 0
1.4 2.35619 0
1.4 2.41903 0
1.4 2.48186 0
1.4 2.54469 0
1.4 2.60752 0
1.4 2.67035 0
1.4 2.73319 0
1.4 2.79602 0
1.4 2.85885 0
1.4 2.92168 0
1.4 2.98451 0
1.4 3.04734 0
1.4 3.11018 0
1.5 -3.11018 0
1.5 -3.04734 0
1.5 -2.98451 0
1.5 -2.92168 0
1.5 -2.85885 0
1.5 -2.79602 0
1.5 -2.73319 0
1.5 -2.67035 0
1.5 -2.60752 0
1.5 -2.54469 0
1.5 -2.48186 0
1.5 -2.41903 0
1.5 -2.35619 0
1.5 -2.29336 0
1.5 -2.23053 0
1.5 -2.1677 0
1.5 -2.10487 0
1.5 -2.04204 0
1.5 -1.9792 0
1.5 -1.91637 0
1.5 -1.85354 0
1.5 -1.79071 0
1.5 -1.72788 0
1.5 -1.66504 0
1.5 -1.60221 0
1.5 -1.53938 0
1.5 -1.47655 0
1.5 -1.41372 0
1.5 -1.35088 0
1.5 -1.28805 0
1.5 -1.22522 0
1.5 -1.16239 0
1.5 -1.09956 0
1.5 -1.03673 0
1.5 -0.973894 0
1.5 -0.911062 0
1.5 -0.84823 0
1.5 -0.785398 0
1.5 -0.722566 0
1.5 -0.659734 0
1.5 -0.596903 0
1.5 -0.534071 0
1.5 -0.471239 0
1.5 -0.408407 0
1.5 -0.345575 0
1.5 -0.282743 0
1.5 -0.219911 0
1.5 -0.15708 0
1.5 -0.0942478 0
1.5 -0.0314159 0
1.5 0.0314159 0
1.5 0.0942478 0
1.5 0.15708 0
1.5 0.219911 0
1.5 0.282743 0
1.5 0.345575 0
1.5 0.408407 0
1.5 0.471239 0
1.5 0.534071 0
1.5 0.596903 0
1.5 0.659734 0
1.5 0.722566 0
1.5 0.785398 0
1.5 0.84823 0
1.5 0.911062 0
1.5 0.973894 0
1.5 1.03673 0
1.5 1.09956 0
1.5 1.16239 0
1.5 1.22522 0
1.5 1.28805 0
1.5 1.35088 0
1.5 1.41372 0
1.5 1.47655 0
1.5 1.53938 0
1.5 1.60221 0
1.5 1.66504 0
1.5 1.72788 0
1.5 1.79071 0
1.5 1.85354 0
1.5 1.91637 0
1.5 1.9792 0
1.5 2.04204 0
1.5 2.10487 0
1.5 2.1677 0
1.5 2.23053 0
1.5 2.29336 0
1.5 2.35619 0
1.5 2.41903 0
1.5 2.48186 0
1.5 2.54469 0
1.5 2.60752 0
1.5 2.67035 0
1.5 2.73319 0
1.5 2.79602 0
1.5 2.85885 0
1.5 2.92168 0
1.5 2.98451 0
1.5 3.04734 0
1.5 3.11018 0
